digraph Tree {
node [shape=box] ;
0 [label="X[1] <= 2.5\ngini = 0.451\nsamples = 489\nvalue = [321, 168]"] ;
1 [label="X[6] <= 3.5\ngini = 0.04\nsamples = 295\nvalue = [289, 6]"] ;
0 -> 1 [labeldistance=2.5, labelangle=45, headlabel="True"] ;
2 [label="X[4] <= 5.5\ngini = 0.014\nsamples = 291\nvalue = [289, 2]"] ;
1 -> 2 ;
3 [label="X[3] <= 2.5\ngini = 0.007\nsamples = 289\nvalue = [288, 1]"] ;
2 -> 3 ;
4 [label="gini = 0.0\nsamples = 264\nvalue = [264, 0]"] ;
3 -> 4 ;
5 [label="X[4] <= 1.5\ngini = 0.077\nsamples = 25\nvalue = [24, 1]"] ;
3 -> 5 ;
6 [label="X[0] <= 3.5\ngini = 0.375\nsamples = 4\nvalue = [3, 1]"] ;
5 -> 6 ;
7 [label="gini = 0.0\nsamples = 2\nvalue = [2, 0]"] ;
6 -> 7 ;
8 [label="gini = 0.5\nsamples = 2\nvalue = [1, 1]"] ;
6 -> 8 ;
9 [label="gini = 0.0\nsamples = 21\nvalue = [21, 0]"] ;
5 -> 9 ;
10 [label="X[0] <= 3.0\ngini = 0.5\nsamples = 2\nvalue = [1, 1]"] ;
2 -> 10 ;
11 [label="gini = 0.0\nsamples = 1\nvalue = [1, 0]"] ;
10 -> 11 ;
12 [label="gini = 0.0\nsamples = 1\nvalue = [0, 1]"] ;
10 -> 12 ;
13 [label="gini = 0.0\nsamples = 4\nvalue = [0, 4]"] ;
1 -> 13 ;
14 [label="X[2] <= 2.5\ngini = 0.275\nsamples = 194\nvalue = [32, 162]"] ;
0 -> 14 [labeldistance=2.5, labelangle=-45, headlabel="False"] ;
15 [label="X[0] <= 5.5\ngini = 0.291\nsamples = 17\nvalue = [14, 3]"] ;
14 -> 15 ;
16 [label="gini = 0.0\nsamples = 14\nvalue = [14, 0]"] ;
15 -> 16 ;
17 [label="gini = 0.0\nsamples = 3\nvalue = [0, 3]"] ;
15 -> 17 ;
18 [label="X[1] <= 4.5\ngini = 0.183\nsamples = 177\nvalue = [18, 159]"] ;
14 -> 18 ;
19 [label="X[2] <= 4.5\ngini = 0.393\nsamples = 52\nvalue = [14, 38]"] ;
18 -> 19 ;
20 [label="X[0] <= 9.0\ngini = 0.485\nsamples = 29\nvalue = [12, 17]"] ;
19 -> 20 ;
21 [label="X[6] <= 8.5\ngini = 0.499\nsamples = 23\nvalue = [12, 11]"] ;
20 -> 21 ;
22 [label="X[3] <= 7.0\ngini = 0.48\nsamples = 20\nvalue = [12, 8]"] ;
21 -> 22 ;
23 [label="X[7] <= 5.0\ngini = 0.415\nsamples = 17\nvalue = [12, 5]"] ;
22 -> 23 ;
24 [label="X[2] <= 3.5\ngini = 0.375\nsamples = 16\nvalue = [12, 4]"] ;
23 -> 24 ;
25 [label="X[3] <= 2.5\ngini = 0.463\nsamples = 11\nvalue = [7, 4]"] ;
24 -> 25 ;
26 [label="X[7] <= 2.0\ngini = 0.278\nsamples = 6\nvalue = [5, 1]"] ;
25 -> 26 ;
27 [label="gini = 0.0\nsamples = 5\nvalue = [5, 0]"] ;
26 -> 27 ;
28 [label="gini = 0.0\nsamples = 1\nvalue = [0, 1]"] ;
26 -> 28 ;
29 [label="X[0] <= 5.5\ngini = 0.48\nsamples = 5\nvalue = [2, 3]"] ;
25 -> 29 ;
30 [label="gini = 0.0\nsamples = 3\nvalue = [0, 3]"] ;
29 -> 30 ;
31 [label="gini = 0.0\nsamples = 2\nvalue = [2, 0]"] ;
29 -> 31 ;
32 [label="gini = 0.0\nsamples = 5\nvalue = [5, 0]"] ;
24 -> 32 ;
33 [label="gini = 0.0\nsamples = 1\nvalue = [0, 1]"] ;
23 -> 33 ;
34 [label="gini = 0.0\nsamples = 3\nvalue = [0, 3]"] ;
22 -> 34 ;
35 [label="gini = 0.0\nsamples = 3\nvalue = [0, 3]"] ;
21 -> 35 ;
36 [label="gini = 0.0\nsamples = 6\nvalue = [0, 6]"] ;
20 -> 36 ;
37 [label="X[3] <= 3.5\ngini = 0.159\nsamples = 23\nvalue = [2, 21]"] ;
19 -> 37 ;
38 [label="X[3] <= 2.5\ngini = 0.298\nsamples = 11\nvalue = [2, 9]"] ;
37 -> 38 ;
39 [label="X[4] <= 7.0\ngini = 0.18\nsamples = 10\nvalue = [1, 9]"] ;
38 -> 39 ;
40 [label="gini = 0.0\nsamples = 7\nvalue = [0, 7]"] ;
39 -> 40 ;
41 [label="X[1] <= 3.5\ngini = 0.444\nsamples = 3\nvalue = [1, 2]"] ;
39 -> 41 ;
42 [label="gini = 0.0\nsamples = 2\nvalue = [0, 2]"] ;
41 -> 42 ;
43 [label="gini = 0.0\nsamples = 1\nvalue = [1, 0]"] ;
41 -> 43 ;
44 [label="gini = 0.0\nsamples = 1\nvalue = [1, 0]"] ;
38 -> 44 ;
45 [label="gini = 0.0\nsamples = 12\nvalue = [0, 12]"] ;
37 -> 45 ;
46 [label="X[0] <= 6.5\ngini = 0.062\nsamples = 125\nvalue = [4, 121]"] ;
18 -> 46 ;
47 [label="X[5] <= 4.5\ngini = 0.156\nsamples = 47\nvalue = [4, 43]"] ;
46 -> 47 ;
48 [label="X[1] <= 7.5\ngini = 0.42\nsamples = 10\nvalue = [3, 7]"] ;
47 -> 48 ;
49 [label="X[0] <= 4.5\ngini = 0.245\nsamples = 7\nvalue = [1, 6]"] ;
48 -> 49 ;
50 [label="X[0] <= 3.5\ngini = 0.5\nsamples = 2\nvalue = [1, 1]"] ;
49 -> 50 ;
51 [label="gini = 0.0\nsamples = 1\nvalue = [0, 1]"] ;
50 -> 51 ;
52 [label="gini = 0.0\nsamples = 1\nvalue = [1, 0]"] ;
50 -> 52 ;
53 [label="gini = 0.0\nsamples = 5\nvalue = [0, 5]"] ;
49 -> 53 ;
54 [label="X[0] <= 5.5\ngini = 0.444\nsamples = 3\nvalue = [2, 1]"] ;
48 -> 54 ;
55 [label="gini = 0.0\nsamples = 1\nvalue = [0, 1]"] ;
54 -> 55 ;
56 [label="gini = 0.0\nsamples = 2\nvalue = [2, 0]"] ;
54 -> 56 ;
57 [label="X[0] <= 5.5\ngini = 0.053\nsamples = 37\nvalue = [1, 36]"] ;
47 -> 57 ;
58 [label="gini = 0.0\nsamples = 27\nvalue = [0, 27]"] ;
57 -> 58 ;
59 [label="X[2] <= 6.5\ngini = 0.18\nsamples = 10\nvalue = [1, 9]"] ;
57 -> 59 ;
60 [label="X[3] <= 7.0\ngini = 0.444\nsamples = 3\nvalue = [1, 2]"] ;
59 -> 60 ;
61 [label="gini = 0.0\nsamples = 2\nvalue = [0, 2]"] ;
60 -> 61 ;
62 [label="gini = 0.0\nsamples = 1\nvalue = [1, 0]"] ;
60 -> 62 ;
63 [label="gini = 0.0\nsamples = 7\nvalue = [0, 7]"] ;
59 -> 63 ;
64 [label="gini = 0.0\nsamples = 78\nvalue = [0, 78]"] ;
46 -> 64 ;
}